4 100
sports -0.128786 0.133173 0.051177 -0.036516 0.054800 0.072466 0.002821 0.058872 -0.084446 0.139354 0.249073 0.151299 0.149525 0.151116 -0.102456 0.012873 0.014772 -0.040194 0.024873 0.148625 0.025809 -0.026273 -0.173795 -0.023869 0.059202 0.014781 0.106321 0.022049 0.038010 0.011332 0.004488 -0.047731 -0.183002 0.077708 0.163443 0.177688 0.076315 -0.101934 0.049626 0.016678 0.041622 -0.083971 -0.131511 -0.085752 -0.205367 -0.082412 -0.113987 -0.070676 -0.126698 -0.066965 -0.058706 -0.041008 -0.068651 0.041889 -0.042817 0.073640 -0.175845 -0.050867 0.207620 -0.041124 0.004768 -0.029448 -0.053474 -0.038157 0.053962 0.108685 -0.208226 0.095358 -0.193693 -0.057781 0.040985 -0.154098 0.034099 0.069067 0.096928 0.002590 0.069608 0.085972 0.230083 -0.049288 -0.092100 0.107970 0.031470 -0.160313 -0.023762 0.054748 0.125855 0.124365 -0.106137 -0.021686 0.145161 -0.147808 0.012948 -0.032001 -0.010000 -0.024780 -0.009105 0.055182 0.001930 -0.093594 
politics -0.003262 -0.034398 0.054313 -0.088413 -0.018548 0.011528 -0.044758 0.007370 0.014764 0.120787 0.075082 0.120904 0.046023 0.005308 -0.126840 -0.133823 -0.057386 -0.048862 0.232977 0.241407 -0.035680 0.142967 -0.039349 0.104452 -0.042254 -0.029643 0.016972 -0.109509 -0.047385 -0.047981 -0.161328 -0.034640 0.046967 -0.090413 -0.109103 0.208384 0.034437 0.088316 0.038617 0.036652 0.031089 0.097314 -0.074948 0.196121 0.012546 -0.145978 0.019489 0.024638 -0.000560 -0.070521 0.040308 -0.146292 0.096337 0.106709 -0.182257 -0.023234 -0.001453 -0.121947 0.012842 0.061762 0.046104 0.036658 -0.067742 -0.046884 0.027629 -0.146250 -0.081570 0.030098 -0.039157 0.114193 -0.153188 -0.047824 -0.082717 0.086605 0.086943 -0.057175 0.238209 0.103703 0.107325 -0.090656 -0.224000 0.070141 0.004932 -0.039556 0.076422 0.058038 0.010370 0.153378 0.229828 0.012369 -0.001446 -0.229152 -0.000436 -0.028170 0.076168 -0.034409 -0.047245 -0.044130 0.212598 0.120526 
business -0.078179 0.068430 -0.015092 0.008309 0.100613 -0.164894 0.045498 0.100535 -0.036275 -0.007471 0.004204 0.161033 0.131415 -0.041162 0.012962 -0.026395 -0.184770 -0.072233 0.182789 0.069399 -0.109637 0.018937 0.008868 0.109845 -0.034240 0.203764 -0.137122 -0.204713 -0.192836 0.031690 0.062587 0.086769 -0.210698 0.109652 0.030360 0.067648 0.161381 0.095534 -0.023197 0.016208 0.083876 -0.105464 -0.068569 0.060150 -0.008510 -0.044790 -0.089532 -0.024178 -0.120437 -0.104760 0.108251 -0.059105 0.020026 0.130126 -0.035184 -0.241074 -0.097140 0.101479 -0.094780 0.011797 -0.209729 -0.089328 -0.061551 0.128349 -0.053783 0.043120 -0.062531 -0.043795 -0.084503 -0.091906 0.017270 0.098436 0.058659 0.082722 0.166119 -0.047911 -0.050002 -0.070690 0.162174 0.030785 0.117777 0.082015 -0.101774 0.020114 0.059948 0.068652 0.035989 0.219263 0.005886 0.090830 0.046866 -0.157741 0.083796 -0.036115 0.065785 -0.083153 -0.064084 0.068805 0.124854 0.064333 
arts 0.003011 0.057834 -0.038113 -0.087750 0.256268 -0.011594 0.021488 0.048766 -0.014411 0.105745 0.162849 0.093565 -0.001212 -0.149284 -0.102338 0.075610 -0.076633 -0.046408 -0.070777 0.149261 -0.206221 0.183631 0.059766 0.294107 0.037619 0.198847 0.052210 -0.105998 0.126511 -0.041595 -0.059968 -0.099231 -0.007423 -0.038320 0.037903 -0.032975 0.128760 0.138468 -0.090251 0.091693 0.008248 0.118094 0.043416 0.034068 -0.068805 -0.035644 -0.091940 0.078164 -0.006755 0.074181 0.037643 0.058094 0.015970 -0.182254 -0.097237 0.143539 -0.177810 0.004597 0.121186 0.019671 -0.158117 0.057268 0.066797 0.002032 0.044903 0.038727 0.033659 0.035591 -0.067014 0.018004 0.111296 0.006615 0.010859 0.068397 0.188297 -0.094701 -0.004893 0.079855 0.204239 -0.095474 -0.097860 -0.171425 0.068483 0.019018 0.125884 0.009203 -0.110479 0.208705 -0.016426 0.051558 -0.058798 -0.100187 -0.051094 0.069721 0.009513 -0.029467 -0.003242 0.131586 0.058794 -0.087832 
