4 100
sports -0.105930 0.151882 0.045844 -0.010305 0.063259 0.051816 0.008379 0.012955 -0.058463 0.106926 0.226166 0.133830 0.152049 0.163068 -0.120368 -0.027785 0.017984 -0.046446 0.055122 0.146193 0.008323 0.005066 -0.145526 0.057200 0.043687 0.033900 0.098473 -0.030839 0.023978 0.063869 -0.001002 -0.069394 -0.185536 0.073176 0.129382 0.128508 0.101572 -0.076629 0.058399 0.031145 0.090680 -0.097518 -0.173297 -0.029075 -0.239075 -0.061952 -0.111310 -0.040158 -0.176961 -0.038033 -0.054475 0.005561 -0.069845 0.075127 -0.042810 0.025920 -0.167839 -0.055087 0.203537 -0.031055 -0.006251 -0.008137 -0.045169 -0.092837 0.014192 0.126289 -0.168475 0.149669 -0.263066 -0.015482 0.038236 -0.144945 0.006974 0.081106 0.074391 0.024268 0.042994 0.105779 0.268875 -0.052633 -0.102445 0.086666 0.066978 -0.172930 -0.014042 0.014505 0.077958 0.110676 -0.069267 -0.073699 0.123658 -0.124871 0.012410 -0.011695 -0.032810 0.020807 0.037180 0.029450 -0.054061 -0.061706 
politics -0.030645 -0.012751 0.028024 -0.093727 -0.042490 -0.008356 -0.032286 -0.042541 -0.011086 0.119177 0.058587 0.169706 0.068556 -0.031173 -0.112738 -0.154522 -0.093604 -0.047777 0.223885 0.305096 -0.065766 0.134009 -0.050781 0.125248 -0.037427 -0.020934 0.009045 -0.109316 -0.094395 -0.028905 -0.125924 -0.018906 0.018260 -0.086661 -0.127049 0.170732 0.053121 0.076389 0.069906 0.059912 0.057601 0.091794 -0.096225 0.187657 0.029686 -0.066434 0.037247 0.003737 0.003744 -0.090068 0.005505 -0.103962 0.068952 0.101315 -0.171931 -0.034794 -0.006034 -0.117569 0.037196 0.096178 0.072608 0.045742 -0.062375 -0.002915 0.012532 -0.156909 -0.047998 0.033082 -0.042475 0.116183 -0.078196 -0.057409 -0.070155 0.103075 0.108280 -0.056632 0.249078 0.078182 0.087296 -0.092307 -0.203948 0.041485 -0.006262 -0.046081 0.061338 0.044243 -0.005096 0.175180 0.210764 0.012170 0.024364 -0.225750 0.014362 0.004808 0.076422 -0.044160 -0.032431 -0.038151 0.209568 0.165270 
business -0.091851 0.096033 0.000655 0.014694 0.088433 -0.185188 0.088740 0.041044 -0.044814 -0.012846 0.021052 0.196658 0.161972 -0.004321 0.025030 0.017403 -0.208671 -0.088133 0.174516 0.037084 -0.127199 0.015821 -0.015394 0.101387 -0.031447 0.211765 -0.155148 -0.192117 -0.125428 0.063744 0.067650 0.090716 -0.224068 0.105026 0.084503 0.079214 0.156896 0.134742 -0.014748 0.045884 0.060462 -0.068192 -0.017427 0.031606 -0.069996 -0.029002 -0.043969 -0.064709 -0.134721 -0.110248 0.100164 -0.060119 -0.020653 0.096571 -0.016441 -0.255211 -0.045596 0.052088 -0.117872 -0.002271 -0.210072 -0.119861 -0.056915 0.153724 -0.039264 0.043821 -0.042140 -0.048574 -0.098932 -0.090826 0.000095 0.062009 0.050736 0.046972 0.131691 -0.055545 -0.002206 -0.030287 0.126468 0.020449 0.133901 0.089694 -0.161198 -0.032533 0.039333 0.042558 -0.024695 0.215267 -0.003604 0.068823 0.049706 -0.141275 0.050921 -0.026816 0.036028 -0.091335 -0.091832 0.022685 0.137581 0.068827 
arts 0.010668 0.072155 0.012592 -0.096843 0.275039 -0.015544 0.055979 0.004749 -0.089816 0.074036 0.154404 0.106780 -0.017522 -0.140764 -0.069521 0.052534 -0.049672 -0.045989 -0.054691 0.144978 -0.213622 0.151655 0.003772 0.277822 -0.008104 0.234650 0.059829 -0.112653 0.152733 -0.019412 -0.045211 -0.077394 -0.006586 -0.018115 0.043747 -0.031668 0.106727 0.176948 -0.097280 0.126127 -0.033620 0.124146 0.070105 0.066471 -0.072599 0.010658 -0.053603 0.064092 -0.002498 0.088434 0.005713 0.054863 0.002289 -0.137229 -0.116120 0.125068 -0.125599 -0.081001 0.112857 0.019001 -0.185241 0.049598 0.110037 0.035321 0.038687 0.073091 0.000181 0.033517 -0.102569 0.025522 0.132085 0.019344 -0.005548 0.073075 0.166268 -0.079738 -0.003516 0.092530 0.138976 -0.095266 -0.099499 -0.184148 -0.009000 0.006329 0.127510 -0.012788 -0.077681 0.232089 -0.033363 0.046854 -0.059172 -0.112150 -0.029304 0.092503 0.027944 -0.098551 -0.028379 0.133387 0.062206 -0.052211 
