4 100
sports -0.121085 0.146878 0.071897 -0.042672 0.032498 0.076230 0.002005 0.018494 -0.030816 0.147881 0.225412 0.120617 0.168462 0.131964 -0.127209 0.004496 0.021203 -0.014042 0.030308 0.141778 0.022468 -0.001820 -0.156315 0.004174 0.058752 0.008059 0.081292 0.014598 0.005045 0.010649 0.017795 -0.050085 -0.210885 0.080891 0.161519 0.155714 0.097320 -0.074953 0.052022 0.023541 0.041136 -0.078471 -0.160453 -0.042177 -0.230421 -0.076026 -0.132444 -0.046815 -0.166476 -0.057895 -0.068284 -0.025796 -0.076401 0.059978 -0.023080 0.047105 -0.176568 -0.049135 0.198593 -0.009302 0.067135 -0.018993 -0.011794 -0.040460 0.055582 0.125267 -0.205695 0.148459 -0.219399 -0.030366 0.050381 -0.138896 0.026262 0.113362 0.076639 -0.002764 0.041093 0.085488 0.243282 -0.041929 -0.098288 0.091747 0.038611 -0.153964 -0.022409 -0.013873 0.087165 0.118011 -0.103635 -0.031472 0.152738 -0.120394 -0.007328 -0.032281 -0.024847 0.022327 -0.026053 0.041177 -0.045731 -0.111043 
politics -0.039614 -0.050313 0.053598 -0.073018 -0.025193 0.010953 -0.040312 -0.033325 0.037280 0.139082 0.059863 0.115091 0.027536 -0.027019 -0.151082 -0.118405 -0.053305 -0.025955 0.211954 0.262260 -0.016056 0.141659 -0.046771 0.107436 -0.056451 -0.022817 -0.033732 -0.084979 -0.061733 -0.046498 -0.189759 -0.037711 -0.053750 -0.100501 -0.119088 0.161440 0.076030 0.060733 0.058034 0.031670 0.058883 0.118686 -0.105488 0.143348 -0.002935 -0.110095 0.034292 0.040433 -0.031175 -0.077349 0.043239 -0.122790 0.072099 0.119247 -0.188121 -0.034220 -0.038936 -0.089629 -0.003975 0.126818 0.125163 0.082469 -0.041913 -0.006244 0.029621 -0.177466 -0.052711 0.072980 -0.049070 0.110599 -0.130412 -0.056449 -0.079087 0.076066 0.086800 -0.096494 0.220481 0.068966 0.032314 -0.121540 -0.225883 0.036665 0.008437 -0.021024 0.059704 0.022863 -0.000390 0.170081 0.211513 -0.002692 0.075673 -0.212272 0.011509 -0.040396 0.069494 -0.032438 -0.065575 -0.044046 0.226993 0.142511 
business -0.075849 0.062678 -0.004471 0.002419 0.111276 -0.189340 0.073975 0.085821 -0.008512 0.006184 -0.021187 0.194383 0.158155 -0.034529 0.010197 0.011601 -0.203362 -0.098504 0.142622 0.046663 -0.097486 0.034275 0.013417 0.115939 -0.073297 0.229226 -0.125673 -0.206235 -0.132462 0.022726 0.064124 0.092201 -0.178657 0.110107 0.060819 0.060314 0.146761 0.134887 -0.021598 0.042175 0.076115 -0.077329 -0.063818 0.010463 -0.086967 -0.023154 -0.066070 -0.038853 -0.155944 -0.102557 0.102242 -0.051370 0.022013 0.172822 -0.039415 -0.246784 -0.091246 0.062689 -0.099652 0.012004 -0.188422 -0.078165 -0.097020 0.139177 -0.071334 0.082483 -0.063796 -0.030733 -0.083471 -0.076700 -0.003875 0.060204 0.064329 0.037020 0.149365 -0.090975 -0.024512 -0.002245 0.134777 0.037117 0.103065 0.044883 -0.134346 0.016772 0.004812 0.006200 -0.041609 0.244455 0.000971 0.069330 0.042357 -0.129517 0.080438 -0.072821 0.049353 -0.105080 -0.090242 0.051937 0.116808 0.087279 
arts -0.033232 0.039514 -0.011763 -0.119829 0.274865 0.009086 0.046685 0.025740 -0.016328 0.112718 0.162153 0.113731 0.007688 -0.153759 -0.111394 0.076545 -0.069005 -0.090688 -0.034579 0.178181 -0.213545 0.173756 0.038917 0.271443 0.012973 0.178226 0.072413 -0.100122 0.140533 -0.055893 -0.083284 -0.082889 -0.007465 0.001712 0.031843 -0.029611 0.084904 0.132874 -0.161379 0.106179 -0.005517 0.104845 0.012968 0.028889 -0.042664 0.026297 -0.092291 0.077947 -0.016582 0.063694 0.018530 0.016634 0.026404 -0.153756 -0.122033 0.160914 -0.170800 -0.029256 0.130972 0.028126 -0.161925 0.094277 0.077738 0.027754 0.080690 0.055633 0.050393 0.034905 -0.046547 0.036989 0.117829 0.063345 0.030760 0.060385 0.191991 -0.062556 0.021402 0.106597 0.144744 -0.067129 -0.117316 -0.202884 0.056724 -0.015239 0.108181 0.010273 -0.098205 0.181128 -0.055844 -0.002586 -0.058819 -0.068910 -0.003583 0.081772 -0.034338 -0.070050 0.000571 0.114699 0.069077 -0.063562 
