4 100
sports -0.104091 0.146133 0.052771 -0.021831 0.030784 0.090730 -0.012586 0.054411 -0.072140 0.130971 0.249511 0.153793 0.131728 0.117250 -0.136398 -0.045043 -0.006782 -0.040434 0.054881 0.133848 0.005651 -0.001971 -0.150053 0.001369 0.014277 0.015923 0.067980 -0.014565 0.002232 0.022957 0.016125 -0.049405 -0.184560 0.081970 0.160836 0.155278 0.074902 -0.075229 0.021842 0.034667 0.056867 -0.079693 -0.164438 -0.071830 -0.231684 -0.093306 -0.141184 -0.029470 -0.148586 -0.077804 -0.086883 -0.007187 -0.074199 0.049481 -0.069797 0.054991 -0.192080 -0.043574 0.204607 -0.021780 0.002048 0.019947 0.021850 -0.048979 0.077325 0.095018 -0.179568 0.148188 -0.187991 -0.043558 0.053708 -0.164646 0.011241 0.100145 0.100298 0.046971 0.020829 0.080993 0.221349 -0.047615 -0.080371 0.130307 0.037566 -0.165283 -0.010853 0.020170 0.112450 0.135264 -0.106622 -0.044185 0.161811 -0.124060 0.015838 -0.000560 -0.012620 -0.046684 0.002462 0.038247 0.013579 -0.118338 
politics -0.059885 -0.042352 0.031496 -0.043986 -0.035894 0.003881 -0.055519 -0.026398 0.010407 0.147758 0.005547 0.116835 0.045109 -0.045916 -0.145277 -0.121670 -0.059419 -0.046404 0.248017 0.244748 0.028160 0.153976 -0.034778 0.098693 -0.023621 -0.020930 -0.017771 -0.104288 -0.052766 -0.078997 -0.145831 -0.029622 -0.044801 -0.148852 -0.122978 0.141034 0.040477 0.052615 0.062166 0.073569 0.066321 0.111635 -0.091771 0.142727 0.050494 -0.123152 -0.006190 0.014275 0.014225 -0.066614 0.057901 -0.125304 0.082762 0.101674 -0.193725 -0.054843 -0.030992 -0.104059 -0.012090 0.096597 0.043966 0.067439 -0.036241 -0.053324 0.007265 -0.143029 -0.080503 0.058733 -0.030980 0.086622 -0.129612 -0.087316 -0.092466 0.065818 0.123820 -0.098652 0.220286 0.054874 0.037803 -0.138976 -0.205163 0.072825 -0.006041 -0.045393 0.036923 0.069640 0.026049 0.167679 0.220521 0.022602 0.034780 -0.235911 -0.010706 -0.019885 0.076637 -0.040992 -0.041536 -0.045762 0.239054 0.148822 
business -0.072287 0.033776 -0.048743 0.040893 0.119093 -0.162049 0.007573 0.143993 -0.064571 0.016851 -0.027441 0.191771 0.137692 0.022117 0.037381 0.004632 -0.256379 -0.132176 0.147364 0.010306 -0.107162 -0.019979 0.018245 0.087967 -0.032109 0.202123 -0.170520 -0.199576 -0.177925 0.026495 0.073886 0.117436 -0.200185 0.083256 0.013581 0.059142 0.131943 0.145713 -0.017310 0.069878 0.069035 -0.078819 -0.037630 0.019739 -0.058233 -0.047983 -0.026504 -0.074214 -0.117092 -0.085276 0.072549 -0.141704 0.042431 0.147428 0.018046 -0.243160 -0.067478 0.081602 -0.080989 0.031222 -0.215707 -0.082196 -0.075169 0.122878 -0.043277 0.056437 0.003029 -0.046978 -0.093351 -0.068316 -0.030055 0.028205 0.090866 0.090505 0.130935 -0.047093 -0.049848 -0.007460 0.138991 -0.004954 0.121005 0.051441 -0.098909 -0.001247 0.000595 0.012805 0.007835 0.191214 -0.027092 0.068781 0.076888 -0.131927 0.086065 -0.038641 0.051840 -0.115640 -0.048397 0.074209 0.143131 0.104126 
arts -0.008551 0.011484 -0.021194 -0.061780 0.248394 -0.059240 0.023974 0.019759 -0.042004 0.095500 0.109859 0.115592 0.032546 -0.162397 -0.092344 0.067937 -0.087520 -0.063692 -0.069959 0.177613 -0.212337 0.167088 0.039329 0.270553 0.046712 0.228255 0.023454 -0.123368 0.138614 -0.053968 -0.059523 -0.064706 0.000910 -0.001747 0.018906 -0.018252 0.085785 0.146920 -0.100447 0.130987 0.008237 0.113548 0.049309 0.041673 -0.067570 -0.012668 -0.030175 0.069080 -0.026682 0.110153 0.032967 0.054966 0.037318 -0.150095 -0.088029 0.116437 -0.121491 -0.002260 0.124139 0.051458 -0.176096 0.065171 0.084878 0.032167 0.076460 0.044474 0.022515 -0.003673 -0.102666 0.037144 0.108129 0.026433 0.008987 0.090684 0.191446 -0.083519 -0.000771 0.133052 0.116270 -0.112609 -0.138928 -0.210285 0.075053 -0.021480 0.147824 -0.006295 -0.101682 0.202438 -0.044972 0.048156 -0.036754 -0.088099 -0.059434 0.067913 0.014145 -0.040623 -0.007241 0.167396 0.079045 -0.068092 
