4 100
sports -0.118407 0.168677 0.059238 0.001133 0.027550 0.082774 0.011657 0.008362 -0.039822 0.126961 0.202670 0.135517 0.168747 0.143916 -0.113393 0.003928 0.039346 -0.032265 0.034310 0.107865 -0.002261 0.040435 -0.171122 0.002241 0.025920 -0.007495 0.082797 0.000574 0.022944 0.043239 0.000111 -0.068594 -0.176875 0.087390 0.166615 0.148612 0.086297 -0.045980 0.024700 0.023697 0.049178 -0.102104 -0.182629 -0.093922 -0.218175 -0.058198 -0.117186 -0.068915 -0.141895 -0.051950 -0.081296 -0.034664 -0.065580 0.057517 -0.034510 0.048341 -0.164995 -0.029679 0.213845 -0.050138 0.017167 -0.031600 0.001112 -0.040101 0.062820 0.112692 -0.199139 0.157191 -0.210988 -0.030243 0.069511 -0.182561 0.015878 0.101861 0.081164 0.020604 0.010956 0.092739 0.238256 -0.033077 -0.120712 0.077453 -0.000592 -0.173683 -0.001340 0.008689 0.091444 0.106569 -0.112652 -0.051343 0.196096 -0.106350 0.007870 -0.013200 0.004550 0.017847 -0.032368 0.060605 -0.020708 -0.103878 
politics -0.061486 0.003793 0.064644 -0.047917 -0.020927 0.069141 -0.024251 -0.041159 0.019687 0.184979 0.063779 0.131080 0.027165 -0.013528 -0.145842 -0.135755 -0.014981 -0.078866 0.204612 0.227275 -0.085634 0.192282 -0.069063 0.129871 -0.060896 -0.031028 0.022943 -0.076862 -0.040588 -0.024183 -0.149722 0.034377 -0.020139 -0.101274 -0.089419 0.195754 0.053613 0.090035 0.057293 0.057266 0.072289 0.143065 -0.119402 0.108278 0.060207 -0.100145 0.030367 -0.003894 0.059541 -0.052570 0.027487 -0.165301 0.052999 0.128960 -0.221416 -0.023578 -0.007125 -0.099137 -0.025760 0.061382 0.079763 0.013047 -0.046336 -0.039471 0.075581 -0.158082 -0.054950 0.046241 -0.070661 0.104883 -0.121965 -0.068662 -0.064322 0.057970 0.080244 -0.069101 0.211974 0.062527 0.081408 -0.086276 -0.222790 0.045361 -0.005350 -0.053698 0.056456 0.034907 0.010550 0.142681 0.185946 0.009351 0.062360 -0.220213 -0.018223 -0.029323 0.095574 -0.035292 -0.066770 -0.069788 0.232215 0.140540 
business -0.087539 0.118943 0.008727 0.024963 0.070839 -0.157551 0.068803 0.073272 -0.018643 0.013493 -0.004187 0.177450 0.179552 -0.066912 0.053840 -0.018476 -0.167504 -0.094716 0.183637 0.051705 -0.137529 0.057547 0.012954 0.104497 -0.060503 0.190559 -0.124975 -0.209401 -0.162893 0.036331 0.072882 0.109993 -0.166171 0.143290 0.092170 0.062947 0.139029 0.169545 -0.022648 0.056999 0.058020 -0.039292 -0.071500 -0.015599 -0.051020 -0.005940 -0.072700 -0.080181 -0.155328 -0.093043 0.059702 -0.112817 0.004545 0.166367 -0.061915 -0.224160 -0.067781 0.086724 -0.062606 0.018010 -0.162158 -0.097058 -0.033941 0.141735 -0.047825 0.039854 -0.048380 -0.075734 -0.097675 -0.118790 0.005625 0.102046 0.065828 0.060701 0.113488 -0.043461 -0.009399 -0.016061 0.122654 0.023128 0.107988 0.054885 -0.152745 0.006921 0.076593 0.019191 -0.034155 0.205317 -0.011104 0.061855 0.061025 -0.140161 0.140207 -0.034768 0.056372 -0.138181 -0.066500 0.059538 0.129412 0.073097 
arts 0.005835 0.052826 -0.005486 -0.054112 0.242303 -0.002798 0.024272 0.004188 -0.058928 0.126091 0.140222 0.115182 0.031906 -0.164652 -0.063800 0.064401 -0.053728 -0.074736 -0.079727 0.160539 -0.246634 0.192674 0.008780 0.247743 -0.049164 0.187897 0.057983 -0.113603 0.169212 -0.081607 -0.073458 -0.036188 -0.011389 0.003711 0.051967 -0.001867 0.065983 0.171328 -0.128578 0.109700 -0.007112 0.124013 0.038932 0.015831 -0.057393 0.015851 -0.051357 0.011637 0.031621 0.101827 0.008932 0.003056 0.025510 -0.144740 -0.083031 0.132578 -0.112454 -0.043943 0.143108 -0.004642 -0.158591 0.042273 0.092121 0.046407 0.071752 0.026737 0.020312 0.009878 -0.097918 0.019791 0.152027 -0.004682 -0.021728 0.078436 0.176896 -0.101825 0.010194 0.132596 0.147867 -0.097685 -0.094390 -0.205942 0.061191 0.009523 0.163033 -0.023204 -0.110160 0.142840 -0.084050 0.034972 -0.062328 -0.104890 -0.030275 0.065140 -0.012023 -0.097043 -0.013204 0.176646 0.065232 -0.078878 
