1 100
agriculture -0.143967 -0.108049 -0.020941 -0.065054 -0.014633 0.053905 -0.049076 0.074634 -0.127474 -0.058314 0.024799 0.100561 0.150014 -0.026364 -0.030736 0.038379 -0.077156 -0.082725 0.044060 -0.098076 0.102853 -0.054000 -0.025736 0.091698 -0.111342 -0.075478 -0.207645 -0.034512 0.079944 -0.019177 0.191664 -0.021291 -0.103339 0.016976 -0.016533 -0.142799 0.090953 0.007678 0.156256 -0.061101 0.000687 0.061918 -0.027416 0.003410 -0.094939 0.170488 -0.003555 -0.071963 0.082407 -0.138607 0.063094 -0.122764 -0.061865 -0.023724 -0.004164 0.088962 0.121313 -0.091144 0.115944 -0.081974 0.117991 0.056784 -0.045992 0.220636 0.125053 0.048477 0.014655 0.137734 0.127893 0.205561 0.151468 -0.070234 0.077690 -0.069285 -0.109230 -0.028564 0.241696 -0.050165 -0.155859 0.077500 -0.005547 0.137263 0.134105 0.096831 -0.058558 -0.060484 0.215081 0.003375 0.156843 0.028329 -0.063509 0.060696 -0.080146 -0.054392 -0.127489 0.105100 -0.020305 -0.142259 0.075755 -0.154345 
