7 100
budget 0.106440 0.098060 0.098842 -0.015678 -0.014207 -0.019531 -0.064897 0.156523 -0.092217 0.137782 0.090496 -0.084610 0.183571 -0.095059 -0.025463 0.020566 -0.162799 0.051993 0.177872 0.060820 -0.065384 0.041395 -0.062219 0.210780 0.019540 0.013070 -0.007252 0.002644 -0.086101 0.097602 -0.017393 0.040399 0.141407 -0.003803 -0.138757 -0.023193 0.197676 0.018960 -0.084561 0.112808 0.042225 -0.057800 0.027011 0.039731 0.136705 0.015336 0.104455 -0.039293 0.244299 -0.025401 0.072446 -0.097466 0.202797 0.267462 0.008189 -0.122945 0.011911 -0.073082 -0.046418 0.100851 -0.051680 0.004452 -0.118423 0.064339 -0.111411 -0.063699 0.181304 -0.092770 -0.043905 0.066271 -0.059514 -0.076560 -0.096029 -0.020844 0.021410 0.004378 -0.067534 0.023862 0.169153 -0.053593 -0.129693 0.121820 -0.076495 0.094406 -0.012464 0.092417 0.149075 0.042927 0.104481 -0.009257 -0.065112 -0.083685 -0.018527 -0.179888 0.080690 0.004201 -0.077554 0.175648 0.179530 0.071403 
surveillance 0.075209 0.105498 -0.273165 -0.004961 -0.021745 -0.143817 0.012441 0.058786 0.207264 0.072338 -0.040761 -0.110627 0.120412 -0.018617 -0.047292 0.125222 0.020301 -0.136410 0.201567 0.176163 0.187970 0.103183 -0.028738 -0.001436 0.003211 -0.078765 0.099822 -0.048264 0.061973 -0.225101 -0.119781 -0.162801 -0.008888 -0.210439 -0.142638 -0.048293 0.138387 0.239756 -0.010999 -0.055815 -0.021644 -0.140364 -0.085427 0.227273 -0.057143 -0.199866 -0.075720 0.095884 0.078837 0.069472 0.044245 -0.054069 -0.061761 0.130677 0.047556 -0.076141 -0.003895 -0.034161 -0.130471 -0.123713 0.023517 -0.009817 0.007794 -0.106381 -0.025588 0.070457 -0.039682 0.052984 -0.004014 0.043462 -0.064421 0.028496 0.022896 -0.018828 0.019400 0.066543 -0.042151 0.034082 -0.026056 -0.031765 -0.144895 0.031566 -0.012028 -0.054988 0.027202 0.052741 -0.034593 0.135461 -0.055822 0.007423 -0.238973 -0.086883 0.031125 -0.111024 0.023662 0.040445 0.005240 0.024810 -0.037101 -0.047581 
immigration -0.089624 0.107794 0.047985 0.064752 0.023772 -0.015573 -0.084948 0.040180 -0.037104 -0.090751 0.153906 -0.012974 -0.064986 -0.027373 -0.149958 0.012137 0.010890 -0.057497 0.068789 -0.021903 0.060126 0.058559 -0.045883 -0.013341 0.021727 -0.021892 0.226566 -0.038381 -0.040083 -0.003578 -0.076450 0.061698 0.008353 -0.151330 -0.101343 -0.030544 0.023577 0.062903 0.026942 -0.078756 -0.084052 -0.149669 -0.011638 0.147400 0.084980 -0.067411 -0.028633 -0.019720 -0.130648 -0.176128 -0.015720 -0.039353 0.077504 -0.068064 -0.083969 -0.206082 -0.208877 -0.267979 -0.165242 -0.019375 0.052431 0.051708 0.028892 0.118851 -0.051561 -0.160969 0.066455 -0.072422 0.167206 0.042500 -0.239381 -0.069523 0.058198 -0.061813 0.064342 -0.040733 0.011934 0.040278 0.073336 -0.080873 -0.113692 0.013249 -0.046222 0.044176 -0.070582 0.041962 -0.043158 0.068904 0.182797 -0.052803 0.073758 -0.057147 -0.279128 0.013053 0.118375 -0.158154 -0.054437 -0.281112 -0.032465 0.065250 
law_enforcement 0.094957 -0.057293 -0.014234 0.061294 -0.102960 0.084548 -0.029442 0.008640 -0.122357 0.107909 0.046052 0.079521 0.023946 -0.153560 -0.097826 -0.054990 0.064457 -0.169718 -0.016981 0.203074 -0.046254 0.164782 0.049111 0.096488 -0.074346 -0.053450 0.070759 -0.074519 -0.179431 0.021041 0.020568 0.053494 -0.072185 0.043610 0.048890 -0.163953 -0.015346 0.088512 -0.048763 0.056481 0.093939 -0.092130 -0.104878 0.023556 -0.016219 -0.305596 0.141359 -0.145843 -0.039939 -0.005758 -0.061362 0.200786 0.050355 0.065567 0.044931 -0.116818 0.053729 -0.099852 0.021884 -0.085605 0.096365 0.078630 0.146234 0.059500 0.040746 0.045971 0.070204 0.015015 0.048288 0.028617 0.028497 -0.189874 -0.101822 -0.268397 0.107011 0.194793 0.096454 0.000463 0.032885 0.025509 -0.083058 -0.120805 -0.214105 -0.065362 -0.062342 0.261801 0.013760 0.062641 -0.056766 0.046237 -0.051889 -0.072004 0.040086 0.042622 -0.056046 -0.014299 -0.008075 -0.064381 0.113890 -0.052006 
gay_rights -0.091671 -0.032295 -0.087863 -0.026966 0.165006 0.064830 0.034599 -0.115871 0.035355 -0.100398 0.042316 -0.093607 0.077916 -0.032385 -0.038208 -0.102915 -0.039798 -0.097784 -0.004017 0.077150 0.140919 -0.032161 0.116029 0.041627 0.055179 0.156619 0.008363 -0.246668 -0.002275 0.220065 0.004095 -0.029594 0.064189 -0.056730 -0.054745 -0.003588 0.044162 0.049234 -0.070418 0.087053 0.073309 -0.005343 -0.175892 0.094909 -0.241378 -0.228375 -0.018958 -0.105114 0.087674 0.127853 -0.130200 0.013444 0.055400 -0.134382 -0.095936 -0.015790 -0.280217 -0.089665 -0.005425 -0.035216 -0.066427 0.083465 0.081824 -0.162259 0.007127 -0.060140 0.022258 0.004406 -0.180132 0.202786 -0.075398 -0.031157 -0.031749 0.097437 -0.121915 0.067485 0.116442 0.017320 -0.025773 -0.001174 0.055231 0.170031 -0.040712 -0.046960 -0.014613 0.081375 0.103601 -0.017444 -0.056609 0.142490 0.117617 -0.239484 -0.045300 -0.001319 0.102376 -0.065750 -0.041967 -0.096471 0.018562 0.007361 
abortion 0.118836 -0.014425 0.341997 0.015285 -0.108566 -0.057832 0.002712 -0.022845 0.034736 0.096999 -0.046502 0.020387 -0.118061 0.008853 0.043317 0.009433 -0.020640 -0.046018 -0.022456 -0.052440 0.076100 -0.008766 -0.005348 -0.006083 0.103283 0.084207 0.155370 -0.178821 0.068662 -0.058289 -0.017487 0.094977 -0.033988 0.056499 -0.034646 0.076576 0.078492 -0.069630 0.081220 0.006263 -0.141497 0.052525 0.102546 0.052706 0.073582 -0.172621 -0.065160 0.035218 0.060184 0.080659 -0.072380 0.145202 0.073905 0.127102 -0.181239 0.024900 0.125163 0.034789 -0.113114 -0.012459 0.115225 0.001130 0.133235 0.015567 0.098281 -0.115657 -0.049133 0.063209 -0.041031 0.104383 -0.238070 0.049670 -0.070893 -0.023943 -0.130389 0.028961 0.204145 -0.006356 0.019086 0.034791 -0.186685 -0.001431 -0.047165 0.005612 -0.026535 0.188125 0.119307 -0.073882 0.152291 0.062056 0.103299 -0.299560 0.029455 -0.068749 -0.029095 -0.096348 0.103923 0.021670 0.116781 0.182361 
insurance -0.093525 -0.018304 -0.049399 -0.010362 -0.090051 -0.257886 0.077629 -0.049331 0.004631 0.220883 0.010397 -0.012079 0.047222 -0.202293 -0.065427 -0.158753 0.051454 -0.031462 -0.016560 0.121183 0.011296 0.024513 0.073451 0.084932 0.054023 -0.051957 -0.148479 -0.044366 -0.045808 -0.069817 -0.023011 -0.084687 -0.120607 -0.082877 -0.036275 -0.036769 -0.016696 0.062487 0.069268 0.090387 0.105559 0.073732 -0.194396 -0.015209 -0.160681 -0.003537 -0.112504 0.012474 0.093736 -0.095781 -0.044527 -0.044701 0.068397 0.072434 -0.089817 -0.077856 0.040938 -0.168418 -0.195412 0.019248 -0.056768 0.030922 -0.147593 0.047374 0.073644 -0.090839 -0.136967 0.091737 0.009594 -0.027839 -0.069969 -0.131459 -0.079114 -0.038070 -0.013887 -0.102570 0.070526 -0.073513 -0.021724 -0.246861 0.047613 0.047840 -0.091371 0.105128 0.044673 0.114772 -0.104300 -0.011042 0.309032 -0.000285 0.062139 -0.252609 0.016758 0.066353 -0.052310 0.154816 -0.061613 -0.055826 0.060125 0.144081 
