5 100
basketball 0.147891 -0.022304 -0.029980 0.002366 0.044391 0.138982 -0.048245 0.091061 -0.030502 0.135681 0.160860 0.099054 0.054534 0.031873 0.071709 0.011999 0.004348 -0.111632 -0.068882 0.038667 0.094187 0.011189 -0.119943 0.038161 0.161660 -0.037013 0.096804 -0.136746 0.130694 -0.058011 0.013685 -0.129017 -0.163788 0.117742 0.023853 -0.016953 0.004464 -0.086765 0.087957 0.030728 -0.057903 -0.282193 -0.105807 -0.088654 -0.071963 -0.048363 -0.069376 -0.029968 0.168065 0.125772 -0.083366 0.152272 0.002408 0.174258 -0.071820 0.000475 -0.178574 -0.032216 0.038267 0.156511 0.003015 0.030660 -0.056325 -0.045949 0.110722 0.041039 0.078803 -0.249258 0.066650 0.110760 -0.086281 0.035393 0.109588 -0.127578 -0.126733 -0.192564 -0.072828 0.048699 0.133227 -0.009534 -0.007532 0.082973 -0.142646 -0.042406 -0.074233 0.177271 0.111369 -0.086929 -0.024057 -0.061000 0.094309 -0.091664 -0.009523 0.203483 -0.056186 -0.005660 -0.158856 0.040448 -0.048864 -0.007341 
tennis 0.121731 0.039054 0.080477 0.024531 -0.025278 0.118478 -0.031541 0.094579 -0.126821 0.119022 0.200193 -0.019400 0.036052 -0.001923 -0.021890 -0.127073 -0.142031 -0.063027 0.087280 0.029142 0.066369 0.124267 0.163613 0.002328 0.072697 0.003161 0.188359 -0.049783 -0.021049 -0.117041 0.143965 -0.181153 -0.159202 0.161274 -0.097592 0.143540 0.130043 0.066927 -0.168575 0.005454 -0.032278 -0.055715 0.108335 -0.031914 -0.273410 -0.047423 -0.193946 0.004823 0.012049 -0.110618 -0.065185 0.164236 -0.133102 -0.003826 0.017450 0.055952 -0.142355 -0.062553 -0.053859 0.013577 -0.002399 -0.107282 -0.065657 -0.059748 0.131404 -0.099897 0.014025 0.093629 -0.027660 0.044051 0.162055 -0.037677 -0.020022 -0.156494 0.007823 0.060766 0.019864 -0.110507 -0.008591 -0.019702 -0.040160 0.064658 0.000026 -0.058767 -0.121068 -0.049019 0.027051 0.074610 -0.026865 -0.112556 0.125708 -0.168807 -0.100299 -0.134416 -0.144919 -0.132939 -0.025813 -0.060283 0.170699 -0.004814 
golf 0.061140 -0.010574 0.050527 0.007910 0.115751 -0.149207 0.068017 0.067366 -0.163366 -0.057436 0.142075 0.125589 0.068594 0.130306 -0.073231 0.088882 0.165329 0.038744 -0.080495 0.103271 0.063332 -0.026759 -0.146000 0.074066 0.126164 0.042043 0.088997 0.085842 -0.069368 0.098319 -0.024122 -0.075474 -0.230846 -0.007010 -0.001528 -0.140885 0.003084 0.000965 -0.069710 0.028457 -0.048026 -0.134881 0.061484 0.116758 -0.014306 -0.145027 -0.151322 -0.144921 -0.011018 0.027701 -0.172660 0.133787 0.117265 -0.071577 -0.014360 0.014392 0.001533 -0.127827 0.018174 0.030342 0.092958 0.041817 0.015684 -0.104657 -0.040963 -0.083972 -0.037915 -0.071840 -0.019081 0.031597 -0.009466 0.048054 0.006263 -0.093496 0.006192 0.130868 -0.012746 0.041568 0.187633 -0.139260 -0.056476 0.153530 -0.063719 0.031975 0.019130 0.110214 -0.049612 0.031863 -0.055360 -0.082346 0.027744 -0.316266 -0.003015 -0.208284 -0.064391 -0.085077 0.254681 0.107629 0.160448 0.103081 
baseball -0.003927 -0.070417 0.041007 -0.151882 0.028119 0.000965 0.126508 -0.022450 0.212705 0.072934 0.232490 0.012371 0.136790 -0.200558 -0.195002 0.045612 0.167965 -0.103798 0.152704 0.100605 0.067437 -0.059862 -0.076844 -0.022335 0.074916 0.081527 0.136161 -0.088638 -0.020030 0.049078 -0.044907 -0.075441 -0.079545 0.042976 -0.075943 0.047096 0.110826 -0.016693 -0.013977 0.003645 0.050255 -0.290985 -0.029029 -0.168314 -0.028961 -0.107135 -0.024025 -0.102420 -0.013517 0.063737 -0.024299 0.141579 0.128945 -0.011996 0.131473 -0.039529 -0.114563 -0.065365 0.111779 -0.129828 -0.128814 -0.054770 0.159415 0.151735 0.092677 0.058794 -0.179868 -0.036838 0.039699 -0.052433 -0.013207 0.027422 -0.114354 0.017516 0.017777 0.167943 0.153144 -0.032291 0.063777 0.053057 -0.082833 0.073313 -0.075366 -0.111230 -0.105086 0.075036 0.068833 0.048471 0.047537 -0.085525 0.129022 -0.090540 0.001046 -0.046499 -0.210190 -0.042551 -0.031044 0.020286 -0.014732 -0.081062 
hockey -0.017256 0.149886 -0.034935 -0.066506 -0.081163 -0.136768 0.030382 0.076803 0.009796 0.056913 0.103739 0.123518 0.127309 0.003670 -0.002412 0.054927 -0.167148 0.145639 -0.022635 0.227929 0.118149 0.035150 0.020540 0.066235 0.018788 0.084651 0.107651 -0.017303 0.032837 0.050128 -0.104271 0.005231 -0.065249 0.100243 -0.009994 0.087627 -0.041385 0.044251 -0.118032 -0.057887 0.178873 -0.132630 -0.043358 -0.073641 -0.032976 -0.105828 -0.089562 0.005138 -0.038470 -0.029167 -0.119521 0.198294 0.018475 -0.034984 0.147716 -0.047468 -0.084816 -0.099371 0.153513 -0.037762 0.007790 -0.045465 -0.057994 -0.092096 0.173411 -0.027568 0.076361 0.150203 0.105047 0.020862 -0.128784 -0.007605 -0.018712 0.039163 -0.238557 0.067747 -0.063818 -0.006188 0.149889 -0.220357 0.014247 -0.032063 -0.156498 0.070418 0.020923 0.142860 0.307930 0.000224 0.110736 -0.042602 0.185381 0.147055 -0.101674 -0.013017 0.101089 -0.092310 -0.011674 -0.000001 0.076398 -0.001936 
