4 100
stocks -0.028627 0.034304 0.049617 -0.038322 0.007951 -0.140669 -0.001219 0.020019 -0.007213 -0.057700 -0.038905 -0.081833 0.073919 -0.179437 -0.006023 0.045226 -0.026970 -0.032746 0.169717 0.093418 0.018343 -0.017943 0.083669 0.061229 0.078184 -0.004781 0.033622 -0.052455 -0.059589 0.114718 0.057221 -0.014550 -0.157452 0.014243 -0.056219 -0.131162 -0.031068 0.159234 0.028669 0.047192 -0.025652 -0.098390 0.001963 -0.112065 -0.002201 -0.226413 -0.073354 -0.008254 0.107684 0.080247 0.176659 -0.000759 0.045082 0.048511 -0.033135 -0.124115 -0.084932 0.051863 -0.132304 -0.012555 -0.116596 0.004497 -0.034753 0.044576 0.074763 -0.132449 -0.081079 -0.004384 -0.206465 -0.215660 -0.029731 -0.000741 -0.047467 -0.188075 -0.006854 -0.018624 -0.226252 -0.008614 0.149463 0.008372 0.192550 0.111274 -0.180445 0.050097 0.118555 0.078315 0.025495 0.218653 -0.126325 0.069398 -0.078437 -0.229371 0.147026 -0.060327 0.009921 -0.087893 -0.225780 0.143757 0.060237 -0.013285 
electricity 0.021784 0.037051 0.090862 0.103030 -0.173467 -0.142705 0.134427 -0.048609 -0.052297 0.202823 -0.073076 0.042618 0.068927 -0.024703 -0.029763 -0.088115 -0.168693 -0.090065 0.041400 -0.044970 -0.115781 0.146445 0.035768 0.211606 0.071840 0.145987 0.089521 -0.103231 -0.111085 0.099743 0.105090 0.112291 -0.104810 -0.171700 -0.044527 -0.154273 -0.018802 0.005232 -0.025537 0.001143 0.066034 -0.162554 0.021964 -0.020858 -0.000773 -0.111794 -0.141536 -0.038088 -0.122933 0.056014 0.051224 -0.153424 0.124084 0.049399 0.140032 -0.108252 -0.033039 -0.031566 -0.074504 0.026486 -0.058772 -0.184605 0.085722 0.078069 -0.115741 -0.062798 -0.109063 -0.080578 0.060781 0.049220 0.129223 0.007877 0.076931 0.071095 -0.150607 -0.075555 -0.093585 0.001195 0.107764 0.053977 -0.059576 -0.114147 -0.126154 0.115125 -0.006243 0.017446 0.050842 0.137248 0.027995 -0.057836 0.046397 -0.142663 0.048362 0.066044 0.059294 0.035228 0.025102 -0.032054 0.330996 -0.084370 
economy -0.088908 -0.008782 0.023201 -0.041925 0.011529 -0.077874 -0.063369 0.099738 -0.003636 0.072916 -0.080966 -0.058917 0.121836 0.125576 -0.016317 -0.101126 -0.287486 -0.139003 0.066582 0.028028 -0.010855 -0.038854 -0.205830 0.031403 -0.002624 0.087997 -0.072675 -0.011261 -0.111029 0.099405 -0.042309 -0.037609 -0.085484 0.157491 -0.089509 -0.040264 0.027449 0.173767 -0.112354 0.120303 0.048381 -0.165801 -0.101576 -0.000423 0.056059 -0.114860 -0.003175 0.018448 0.134256 -0.043449 0.154628 -0.100334 0.129808 0.075960 -0.016309 -0.298328 -0.049584 0.003943 -0.108909 0.117409 -0.109089 -0.094008 0.036898 0.165720 -0.176584 -0.054319 0.110484 -0.062706 0.098178 0.016912 -0.016740 0.149374 0.007451 0.049965 0.177480 0.085299 -0.047635 -0.076613 0.013955 -0.140533 0.079604 -0.055688 0.048870 0.040613 -0.049564 0.093214 0.178357 0.038248 -0.023184 0.057188 0.088931 -0.115454 -0.005583 -0.139958 -0.015975 0.002522 0.018450 0.085568 0.091524 0.226314 
euro 0.149885 0.009010 -0.003960 0.065181 0.271579 -0.034667 0.017632 -0.068447 -0.078684 0.183855 0.015897 0.037535 0.199929 0.108838 -0.031527 -0.017904 -0.152586 0.007891 0.122641 0.091820 -0.030845 -0.046663 -0.000021 0.022491 0.117551 0.066833 0.071986 -0.214737 0.036695 0.071021 -0.006958 -0.100278 -0.060966 0.114997 0.050659 0.027680 0.049376 0.078808 -0.066304 0.096047 -0.178138 -0.063041 -0.057608 -0.049948 -0.052008 -0.007182 -0.021965 -0.116519 -0.147475 -0.018546 -0.099525 0.076746 0.079920 0.162372 0.233672 -0.132130 -0.179572 -0.037339 -0.190435 0.043994 -0.006814 0.035881 -0.052395 0.059055 -0.068704 -0.134195 0.062927 -0.103618 -0.220834 0.081897 0.058200 -0.092693 0.085274 -0.005927 0.034488 0.035677 0.111105 -0.052099 0.039429 -0.108323 -0.044501 -0.000207 -0.224264 0.012337 -0.061272 0.124744 -0.025331 0.216518 -0.006603 -0.023936 -0.003473 -0.129333 -0.065460 -0.123594 0.021482 -0.083473 -0.142219 -0.055419 0.094920 0.004862 
