3 100
dance 0.186977 0.040409 -0.130587 -0.036665 0.002876 -0.074156 -0.001138 -0.014715 -0.158707 -0.028764 0.141039 -0.125773 0.098434 0.105564 -0.151128 0.083511 -0.081452 -0.155091 -0.078612 0.073092 -0.067236 -0.032182 0.102450 0.177993 0.055221 0.172072 0.195878 -0.114239 0.060890 0.011527 0.063098 -0.195250 0.003514 -0.034418 -0.013984 -0.114671 0.132340 0.040648 -0.088682 0.207937 0.023996 -0.040281 0.133749 0.040077 -0.044254 -0.222837 -0.015809 -0.047072 0.097159 0.053593 -0.186212 0.111907 0.004069 -0.147228 -0.058953 -0.000730 -0.100358 -0.118748 -0.020617 0.028525 -0.117524 -0.054006 0.122888 -0.058811 -0.067403 0.038528 -0.054155 0.040169 -0.054564 0.000662 -0.013309 0.091576 -0.111386 0.020092 0.072675 -0.163342 -0.102874 -0.047038 0.065169 -0.107506 -0.205455 -0.060126 -0.140298 0.150951 -0.015535 -0.023381 -0.006847 0.146755 0.059149 0.068929 -0.089138 -0.146024 -0.066513 0.019223 0.104505 -0.073180 -0.134289 0.126297 -0.011818 -0.045983 
television 0.019459 -0.000935 -0.036971 -0.128258 0.011338 -0.176943 0.116065 -0.024397 -0.111028 0.042255 0.060986 -0.023224 0.225867 -0.098311 -0.049931 0.139741 -0.129294 -0.116191 -0.087296 0.172698 -0.047904 0.035830 0.042921 0.166971 0.199314 0.125830 -0.006579 0.066297 0.064167 -0.129800 0.070428 -0.116014 0.002875 -0.152935 -0.091565 -0.097892 0.228417 0.134925 -0.087704 0.071784 0.034009 -0.133998 -0.013250 0.004870 -0.133947 -0.114096 -0.040560 0.063647 -0.006398 0.065795 -0.020888 0.000182 0.077464 0.090428 -0.068581 0.119641 -0.102038 -0.098714 -0.127955 -0.027172 -0.106239 0.068497 0.012121 0.000571 0.086979 -0.090266 0.060599 -0.111731 -0.049115 0.118634 0.000025 -0.020522 -0.054930 -0.119211 -0.064574 0.089716 -0.217813 0.191670 0.073941 -0.145538 -0.150679 -0.192467 -0.073702 -0.046446 0.082494 0.135764 0.000977 -0.033282 -0.139219 -0.012043 0.099397 -0.069725 -0.058213 0.046507 -0.141283 0.091618 -0.039249 -0.068899 -0.072736 -0.021033 
movies 0.021527 0.053430 -0.065453 -0.086276 0.248412 -0.036140 0.104526 0.119062 0.053892 -0.026535 0.199355 -0.100317 -0.115418 -0.116120 -0.136772 -0.046972 -0.084732 -0.153574 0.055924 0.126516 -0.125018 0.041538 0.086540 0.259022 0.054148 0.013316 0.156165 -0.125616 0.122074 0.019536 -0.027767 -0.177892 0.011735 -0.036830 0.010673 -0.113671 0.119599 0.020249 -0.225728 -0.022445 -0.082623 -0.138569 -0.057652 -0.001722 -0.039239 0.033539 -0.070991 0.028557 0.119217 0.080944 0.020491 0.123207 0.136630 -0.080121 -0.006564 0.088648 -0.098808 -0.120753 -0.162082 0.104501 -0.074246 0.103245 0.042655 -0.021544 -0.118651 -0.091697 0.123186 0.013556 0.016255 0.022949 -0.020020 0.060617 0.049729 0.009578 0.064665 0.047578 -0.065064 0.110515 0.152385 -0.065849 0.015335 -0.134481 -0.078761 0.174301 0.051628 0.233345 -0.101093 0.122543 -0.089987 0.046441 0.005707 -0.070467 0.124041 0.106761 -0.012455 -0.024875 -0.038655 0.077084 0.031400 0.103741 
